timestamp,timestamp_sample,device_id,bias,bias_var,innov,innov_var,innov_test_ratio
564904254,564787203,0,-6.7630954,0.03516058,-0.050700665,0.6352521,0.00044961282
564974392,564857721,0,-6.7656155,0.034259256,-0.04389906,0.6330974,0.0003382185
565094691,564977833,0,-6.767375,0.03421035,-0.030683517,0.6329485,0.00016527204
565265043,565145687,0,-6.769488,0.034921322,-0.036156178,0.63462275,0.00022887951
565355126,565230811,0,-6.7712812,0.03434786,-0.031158924,0.6332888,0.00017034155
565485345,565360777,0,-6.7731442,0.03444044,-0.032291412,0.6335025,0.00018288718
565605316,565482689,0,-6.7744136,0.034371927,-0.022037983,0.6333175,8.5207874e-05
565725852,565606691,0,-6.776189,0.034310736,-0.030879498,0.63314706,0.00016733752
565846234,565729053,0,-6.778349,0.034256056,-0.03762245,0.63298994,0.00024845908
565976298,565854729,0,-6.78177,0.034358297,-0.059423447,0.63322425,0.000619606
566117022,565992951,0,-6.7852077,0.03460048,-0.059321404,0.6338212,0.0006168983
566276884,566156967,0,-6.789479,0.035118047,-0.072704315,0.6351451,0.00092470855
566357097,566236665,0,-6.793415,0.03437209,-0.06834555,0.63328576,0.0008195552
566487317,566364935,0,-6.79812,0.03446185,-0.0814991,0.63349485,0.0011649842
566607576,566490651,0,-6.8023043,0.034391154,-0.07262039,0.63340276,0.0009251128
566737742,566616831,0,-6.806506,0.034479093,-0.07276106,0.63360983,0.0009283967
566858078,566737671,0,-6.8118525,0.03440646,-0.09275532,0.63341826,0.0015091922
566978237,566857661,0,-6.8172045,0.03434161,-0.09300709,0.63324183,0.0015178191
567108665,566989879,0,-6.822672,0.03443477,-0.09477997,0.63345957,0.0015756934
567268868,567144059,0,-6.829291,0.034970276,-0.113101006,0.63471144,0.0022393095
567359029,567238637,0,-6.835718,0.034391437,-0.11154747,0.6333682,0.002182834
567479822,567358651,0,-6.840867,0.034328155,-0.08951044,0.6331934,0.0014059455
567609521,567488781,0,-6.845621,0.03442271,-0.082437515,0.63341236,0.0011921221
567739650,567618689,0,-6.8488026,0.034507018,-0.05503702,0.6336136,0.0005311814
567860110,567741333,0,-6.8533115,0.034431126,-0.07816219,0.6334167,0.0010716709
567980420,567855391,0,-6.854392,0.034363694,-0.01876831,0.6333322,6.1798266e-05
568110503,567990769,0,-6.857668,0.034454558,-0.05675602,0.6335464,0.00056494074
568280658,568157581,0,-6.862735,0.035138782,-0.0862093,0.6351854,0.0013000654
568361197,568241705,0,-6.8669767,0.03439085,-0.073625565,0.6334179,0.0009508772
568612045,568490707,0,-6.8689156,0.034422487,-0.03734398,0.6334628,0.00024461187
568741558,568617319,0,-6.8715315,0.034506947,-0.04525709,0.63366455,0.00035914627
568861866,568740027,0,-6.876682,0.03443123,-0.08929062,0.6334679,0.0013984424
568972793,568854735,0,-6.880503,0.034212526,-0.06663656,0.6329073,0.0007795475
569112625,568991653,0,-6.886428,0.034470566,-0.102599144,0.63353187,0.0018461904
569272745,569148827,0,-6.8957515,0.035002407,-0.1592083,0.6348803,0.004436056
569362842,569238683,0,-6.901086,0.03442004,-0.09251022,0.6334297,0.0015011999
569483018,569358555,0,-6.909007,0.034353614,-0.1376071,0.6332501,0.0033224917
569603334,569486261,0,-6.916009,0.0342946,-0.12184954,0.63318115,0.0026054173
569733717,569616657,0,-6.9237947,0.03439297,-0.1351285,0.6334098,0.0032030714
569863705,569739533,0,-6.932372,0.034480695,-0.14851093,0.63361996,0.0038676353
569974121,569856875,0,-6.938327,0.034256782,-0.10372543,0.6330504,0.0018883814
570114754,569993653,0,-6.9477835,0.03451016,-0.16360521,0.63366944,0.0046934155
570284233,570160741,0,-6.96178,0.03518825,-0.23782635,0.6353029,0.009892284
570354950,570237661,0,-6.9703865,0.034283876,-0.14980793,0.63314295,0.00393845
570484956,570360585,0,-6.9804935,0.03438336,-0.17545557,0.6333723,0.005400485
570615652,570490329,0,-6.9903345,0.03447207,-0.17042637,0.6335831,0.005093631
570725415,570608693,0,-6.997821,0.034249026,-0.13042212,0.63301426,0.0029857024
570865620,570740745,0,-7.00871,0.034503184,-0.18841648,0.63363355,0.006225254
570985859,570861425,0,-7.0187726,0.034427788,-0.1744628,0.6334399,0.005338973
571106210,570985145,0,-7.028475,0.034360472,-0.16851664,0.6332616,0.004982644
571266589,571142061,0,-7.042733,0.034904286,-0.2441063,0.6346303,0.010432649
571356878,571232159,0,-7.052928,0.03433276,-0.17723465,0.6332999,0.0055111893
571477420,571359725,0,-7.0648775,0.03427597,-0.20804882,0.63313967,0.0075960616
571606954,571482209,0,-7.0802693,0.034376327,-0.2672553,0.63337255,0.012529997
571737267,571612233,0,-7.094736,0.034465816,-0.25059175,0.6335866,0.011012479
571857509,571736703,0,-7.1099625,0.034394577,-0.26424313,0.63340086,0.012248593
571987802,571863373,0,-7.1239147,0.034482047,-0.24156475,0.6336113,0.01023297
572107928,571983643,0,-7.1382446,0.034409013,-0.24858665,0.63342285,0.010839753
572268286,572144105,0,-7.1526365,0.034947336,-0.24608994,0.6346846,0.010601986
572358489,572234349,0,-7.1632986,0.03437101,-0.18515491,0.63334644,0.0060143215
572478857,572360221,0,-7.173989,0.034309953,-0.18594456,0.633178,0.006067344
572609137,572488093,0,-7.1838317,0.03440649,-0.17076063,0.6334034,0.005115082
572739234,572615363,0,-7.197679,0.034492575,-0.23966932,0.6336105,0.010073028
572859394,572734979,0,-7.2109747,0.034418315,-0.23057508,0.6334182,0.009325921
572989695,572871225,0,-7.2253695,0.034503076,-0.24907207,0.63362265,0.010878697
573120138,572995335,0,-7.239439,0.034578655,-0.24295044,0.63381016,0.010347458
573280332,573159531,0,-7.2544265,0.035098672,-0.25529003,0.63514036,0.011401329
573350317,573233335,0,-7.2676015,0.03420408,-0.22984362,0.63299817,0.009272994
573490558,573372205,0,-7.2805905,0.034463346,-0.22502375,0.6336227,0.008879397
573620758,573497189,0,-7.2919517,0.034543548,-0.19640017,0.6338158,0.0067620464
573741204,573620125,0,-7.3040066,0.03446404,-0.20883417,0.63360995,0.0076478375
573861706,573736565,0,-7.3155627,0.034393072,-0.20057201,0.6334204,0.0070567727
573991668,573870739,0,-7.3268666,0.034480765,-0.19572687,0.63362783,0.006717755
574112300,573992143,0,-7.3375416,0.03440793,-0.18519354,0.633436,0.00601598
574272000,574152387,0,-7.349289,0.034946755,-0.20091057,0.63479435,0.00706529
574352255,574231667,0,-7.3587923,0.034219403,-0.16570377,0.63297236,0.0048198947
574492056,574370647,0,-7.371578,0.034478724,-0.2216053,0.6341686,0.00860425
574613016,574488961,0,-7.383479,0.03440986,-0.20683956,0.6345636,0.007491168
574732562,574615713,0,-7.3961916,0.03435064,-0.22154808,0.63508976,0.008587334
574853169,574729401,0,-7.4082413,0.03429965,-0.21048737,0.63552827,0.00774595
575023054,574900033,0,-7.4213347,0.035011236,-0.22465515,0.6378962,0.008791041
575133647,575016789,0,-7.437401,0.03474161,-0.2778535,0.63770616,0.013451434
575263590,575142983,0,-7.4544625,0.0348048,-0.29481983,0.63835394,0.015128969
575354533,575233687,0,-7.4706936,0.034255795,-0.28445864,0.6366892,0.014121092
575484367,575366875,0,-7.4864764,0.0343693,-0.2756176,0.63665897,0.013257588
575615199,575490841,0,-7.5020432,0.03446957,-0.27098036,0.6365926,0.01281656
575745185,575620441,0,-7.5176153,0.034557987,-0.27028894,0.6364966,0.012753165
575854649,575730539,0,-7.5335245,0.034335475,-0.27789497,0.6361844,0.013487637
575995263,575870311,0,-7.5507216,0.034591056,-0.29847717,0.63707155,0.015537872
576115799,575991417,0,-7.5677977,0.034517713,-0.29706717,0.6371177,0.015390301
576285830,576161249,0,-7.586583,0.035208166,-0.3210745,0.639166,0.01792072
576355581,576236891,0,-7.605647,0.034314785,-0.3337803,0.6371956,0.019427016
576496657,576371593,0,-7.6252365,0.034575626,-0.34065247,0.63794035,0.02021159
576616731,576492025,0,-7.6471314,0.034507167,-0.3816223,0.638061,0.025360793
576736691,576619705,0,-7.668579,0.03444652,-0.37452078,0.63804996,0.024426127
576856535,576737143,0,-7.6915965,0.034392744,-0.40258884,0.6380291,0.028225426
576997156,576871711,0,-7.712009,0.03464377,-0.35406828,0.6376876,0.021843566
577117724,576998695,0,-7.729154,0.034565903,-0.29805517,0.6375831,0.015481535
577277894,577158119,0,-7.745472,0.03510295,-0.28003836,0.63968545,0.013621535
577357925,577241043,0,-7.7590833,0.03437267,-0.23801994,0.6375368,0.009873676
577488146,577367697,0,-7.7713523,0.03447764,-0.2140727,0.6381508,0.007979153
577618313,577493431,0,-7.7808022,0.034572378,-0.16455984,0.63870203,0.004710933
577738577,577617795,0,-7.790757,0.034506183,-0.1736865,0.6386464,0.005248427
577869019,577744557,0,-7.7995305,0.034598924,-0.1527443,0.6390905,0.004056254
577998994,577873687,0,-7.809002,0.03468221,-0.16458082,0.6394558,0.0047065797
578109806,577991783,0,-7.8164186,0.0344542,-0.12965298,0.63885677,0.0029236067
578269529,578150041,0,-7.8266706,0.035007104,-0.1767044,0.6405487,0.0054162676
578370103,578246649,0,-7.8368616,0.034593377,-0.17752266,0.6392929,0.0054772836
578489997,578369051,0,-7.8462453,0.0345259,-0.16371346,0.6389911,0.004660488
578630455,578505865,0,-7.857683,0.03476799,-0.19828749,0.63963187,0.006829958
578740417,578615497,0,-7.868515,0.034529828,-0.18888187,0.6387584,0.006205852
578870741,578749703,0,-7.8796263,0.03461908,-0.19325829,0.6388571,0.0064957608
578991282,578869921,0,-7.8902574,0.034546893,-0.18518925,0.63845474,0.0059684133
579131170,579010633,0,-7.901029,0.034784257,-0.18643427,0.6389441,0.0060443017
579281391,579156493,0,-7.912051,0.035146523,-0.18893576,0.6397876,0.006199404
579371484,579247687,0,-7.922348,0.034562305,-0.17912388,0.63790417,0.005588677
579491930,579375141,0,-7.9325776,0.034493335,-0.1781969,0.63746583,0.0055347863
579612109,579495143,0,-7.9425964,0.034430884,-0.17473936,0.63704187,0.00532563
579742259,579618111,0,-7.9540854,0.034525473,-0.19979668,0.63704187,0.006962513
579872529,579747953,0,-7.9663773,0.034609076,-0.21320152,0.6370141,0.007928465
579992704,579875651,0,-7.9792066,0.03453212,-0.22292519,0.6366761,0.008672758
580123011,580000533,0,-7.9928074,0.034613714,-0.23572111,0.6366409,0.0096975025
580273133,580148685,0,-8.007678,0.03498729,-0.25506496,0.6372668,0.0113432575
580363458,580246653,0,-8.022477,0.034414005,-0.25766468,0.635674,0.01160467
580493517,580368899,0,-8.037679,0.034505982,-0.26390934,0.6356673,0.012174107
580614269,580494655,0,-8.053819,0.034436207,-0.28061676,0.6352617,0.013773111
580734109,580610741,0,-8.07068,0.034373164,-0.29353046,0.63488054,0.015078975
580864394,580744649,0,-8.088926,0.034467265,-0.3167448,0.63490164,0.017557798
580994452,580869745,0,-8.108325,0.034550544,-0.33589554,0.634912,0.019744786
581115110,580989921,0,-8.128569,0.034473196,-0.3511362,0.6345376,0.021589937
581265186,581145535,0,-8.150053,0.034856483,-0.36877918,0.63531816,0.023784773
581365225,581244601,0,-8.171536,0.034443006,-0.37274647,0.634151,0.024343997
581495550,581371633,0,-8.193409,0.034526717,-0.37854576,0.634202,0.025105372
581616037,581491335,0,-8.217845,0.034450248,-0.4237566,0.63397527,0.03147155
581735731,581611137,0,-8.2415495,0.034381595,-0.41174126,0.63367504,0.029726218
581866086,581741067,0,-8.266026,0.03447096,-0.4240322,0.6337705,0.03152268
581986287,581867171,0,-8.290204,0.0343993,-0.41961193,0.63348854,0.030882638
582116893,581999837,0,-8.315645,0.03448602,-0.4404297,0.63360167,0.03401687
582266850,582146793,0,-8.342308,0.03486485,-0.45688152,0.6344554,0.036556415
582366982,582247327,0,-8.369297,0.034447804,-0.46759033,0.63337815,0.038355306
582497172,582372249,0,-8.394816,0.034528602,-0.44112968,0.6335089,0.03413008
582617718,582496673,0,-8.421014,0.034449507,-0.4537611,0.6332611,0.036126774
582737795,582614661,0,-8.446803,0.034378782,-0.44750404,0.6330369,0.03514976
582868032,582747813,0,-8.472791,0.03446655,-0.44984627,0.6332062,0.035509173
582998275,582873855,0,-8.497948,0.034544703,-0.43454552,0.63336664,0.033126295
583118618,582997674,0,-8.522701,0.034463357,-0.428483,0.6331449,0.032219704
583288750,583165700,0,-8.547729,0.035145037,-0.4254837,0.63482994,0.031685892
583368751,583248718,0,-8.572077,0.03439514,-0.42232323,0.63308215,0.031303097
583488952,583369742,0,-8.596809,0.034330234,-0.42972565,0.63290304,0.032419242
583619120,583493830,0,-8.620358,0.034423307,-0.4081316,0.63311654,0.029233059
583739590,583619789,0,-8.642896,0.034355283,-0.39129734,0.63294125,0.026878675
583869583,583745164,0,-8.664598,0.03444561,-0.3758917,0.63315934,0.024795331
583989818,583868858,0,-8.685595,0.03437517,-0.36434555,0.6329865,0.023301829
584110099,583993004,0,-8.705832,0.034312323,-0.35176945,0.6328303,0.021726334
584270390,584153602,0,-8.726852,0.034860104,-0.3601055,0.63420737,0.02271882
584370455,584246028,0,-8.748275,0.034442995,-0.3710909,0.63319516,0.02416465
584490807,584373734,0,-8.767928,0.034372993,-0.34109783,0.6330289,0.020421699
584611373,584491676,0,-8.786025,0.034310553,-0.31460667,0.6328779,0.017376944
584741484,584620666,0,-8.80253,0.034405906,-0.2862091,0.6331195,0.014376021
584861571,584744658,0,-8.818231,0.034340277,-0.2727728,0.6330594,0.013059156
584991690,584871088,0,-8.832922,0.03443279,-0.25462055,0.6332972,0.011374618
585112438,584991006,0,-8.847837,0.034364317,-0.2589817,0.6331344,0.01177063
585272156,585148556,0,-8.862345,0.03490673,-0.24825478,0.6344148,0.010793926
585362300,585237600,0,-8.875651,0.034334145,-0.23124695,0.6331013,0.009385044
585492497,585368734,0,-8.888358,0.034427494,-0.22026825,0.6333342,0.008511936
585613091,585489780,0,-8.900258,0.034359746,-0.20666122,0.63316953,0.007494721
585743025,585618418,0,-8.912262,0.03445036,-0.20795631,0.6334015,0.007586171
585873254,585747812,0,-8.921853,0.034531206,-0.1658144,0.6336174,0.0048214193
585993372,585869808,0,-8.929153,0.03445235,-0.12647152,0.6334353,0.0028056968
586114244,585989124,0,-8.935422,0.034382034,-0.10880947,0.6332697,0.002077314
586284320,586165278,0,-8.943379,0.035073973,-0.13562965,0.6350503,0.0032185384
586364107,586244694,0,-8.947397,0.034332648,-0.06983948,0.633207,0.00085588166
586494328,586371764,0,-8.951521,0.0344265,-0.071499825,0.6334469,0.0008967208
586604645,586481668,0,-8.9531145,0.03420839,-0.027789116,0.6329904,0.00013555321
586744993,586620908,0,-8.955633,0.03446685,-0.043632507,0.63359976,0.0003338588
586864972,586745440,0,-8.9590025,0.03439523,-0.058465958,0.63338053,0.0005996515
586995121,586871680,0,-8.9619055,0.034482148,-0.05026245,0.6335346,0.00044307217
587105454,586984648,0,-8.963336,0.03425741,-0.02490902,0.632916,0.00010892428
587275907,587152664,0,-8.966419,0.034961913,-0.05266857,0.6344553,0.00048580227
587365790,587241072,0,-8.969365,0.03438289,-0.051115036,0.6330853,0.00045855626
587486068,587366882,0,-8.9707365,0.034319133,-0.023824692,0.63283604,9.966001e-05
587606390,587481538,0,-8.972817,0.034261916,-0.036221504,0.63259685,0.00023044295
587736430,587612142,0,-8.974265,0.03436153,-0.02512741,0.6327272,0.00011087572
587856868,587739720,0,-8.97625,0.034299035,-0.03448677,0.6324747,0.00020893893
587996957,587872362,0,-8.977683,0.034544807,-0.024748802,0.6329496,0.000107521846
588107313,587982264,0,-8.978902,0.034311097,-0.021162987,0.63239294,7.869088e-05
588267478,588150648,0,-8.980938,0.034856446,-0.03484726,0.63348323,0.0002129902
588357565,588236822,0,-8.981941,0.034286458,-0.017432213,0.63215584,5.3411946e-05
589269090,589143796,0,-8.984784,0.034918666,-0.041542053,0.63305515,0.00030289483
589359317,589235874,0,-8.985953,0.03433995,-0.020271301,0.6316857,7.228026e-05
589479728,589362686,0,-8.987487,0.034276675,-0.026619911,0.6315018,0.0001246798
589729969,589612680,0,-8.990183,0.034304544,-0.02970314,0.6316097,0.00015520776
589860139,589739276,0,-8.991579,0.034396116,-0.0241642,0.6318149,0.000102686296
589980437,589862236,0,-8.994222,0.034326825,-0.045826912,0.63165236,0.00036942013
590110701,589987648,0,-8.99694,0.034416,-0.04701805,0.63186854,0.0003887407
590280886,590156164,0,-9.003003,0.035098284,-0.10298443,0.63344276,0.0018603439
590361095,590236306,0,-9.007205,0.03434941,-0.07282162,0.6317935,0.00093261624
590481461,590361660,0,-9.012405,0.034285527,-0.0902853,0.6316582,0.0014338689
590611349,590486466,0,-9.018023,0.03437959,-0.09728527,0.63190293,0.0016641839
590731592,590613326,0,-9.024211,0.034312602,-0.10736847,0.63177174,0.0020274532
590861945,590737762,0,-9.032971,0.034403898,-0.15163612,0.6320224,0.004042317
590982225,590862664,0,-9.0415945,0.034334473,-0.14954567,0.63189393,0.0039324295
591112809,590992662,0,-9.053086,0.03442366,-0.19883728,0.6321492,0.0069491793
591272593,591155764,0,-9.065856,0.034955822,-0.21785736,0.63350976,0.008324319
591362758,591238188,0,-9.07912,0.034374345,-0.22985554,0.6321627,0.009286212
591482936,591357874,0,-9.093227,0.034309134,-0.24495697,0.63213676,0.010546929
591613730,591488242,0,-9.107629,0.034402106,-0.24945545,0.63240683,0.0109331915
591733558,591608786,0,-9.123362,0.034334183,-0.27303982,0.63228786,0.013100703
591863514,591740260,0,-9.139798,0.03442473,-0.28458405,0.6325595,0.014225817
591983963,591859296,0,-9.157912,0.034354635,-0.31423473,0.6324241,0.01734832
592113931,591989306,0,-9.177557,0.034443144,-0.33999443,0.6326558,0.020301757
592264304,592143672,0,-9.199059,0.034823924,-0.36839962,0.63363695,0.023798816
592364342,592239734,0,-9.218406,0.034409117,-0.33520412,0.6326821,0.019732889
592484505,592359768,0,-9.236733,0.034341324,-0.318161,0.63257784,0.017780231
592615294,592490966,0,-9.25429,0.034432117,-0.30405235,0.6328804,0.016230525
592735070,592614660,0,-9.269956,0.034362372,-0.27187538,0.632788,0.012978934
592855204,592737880,0,-9.285745,0.03430071,-0.27453613,0.6328039,0.013233885
592975588,592854670,0,-9.299794,0.034245912,-0.24466896,0.632736,0.010512177
593115620,592991104,0,-9.31415,0.03449936,-0.24835777,0.63345104,0.01081932
593275585,593151552,0,-9.328445,0.03502704,-0.24389458,0.6348042,0.010411708
593366004,593241948,0,-9.340299,0.034441713,-0.20544338,0.6334837,0.007402976
593476543,593355752,0,-9.349109,0.034221623,-0.15361118,0.6329634,0.0041421377
593606865,593489764,0,-9.357741,0.034327447,-0.15009499,0.6332522,0.0039528757
593736880,593613646,0,-9.367028,0.034421936,-0.16106987,0.63350976,0.004550224
593856841,593736346,0,-9.375754,0.034355227,-0.1516056,0.63335025,0.004032219
593977685,593856654,0,-9.382583,0.03429568,-0.118821144,0.6331951,0.0024774645
594107493,593987672,0,-9.390844,0.034393523,-0.14338875,0.6334271,0.0036065422
594267749,594150726,0,-9.399555,0.034933493,-0.14903545,0.6347899,0.0038878247
594358024,594238940,0,-9.406963,0.03435842,-0.1286869,0.633334,0.0029053162
594478221,594358700,0,-9.413991,0.03429863,-0.12228584,0.6332434,0.0026238512
594608064,594488650,0,-9.422037,0.034396183,-0.13963985,0.6334451,0.0034203243
594738351,594617650,0,-9.42926,0.03448307,-0.12505627,0.633623,0.002742442
594858576,594739714,0,-9.437283,0.03440945,-0.13916588,0.63340014,0.0033973858
594979358,594859156,0,-9.445837,0.03434361,-0.14864254,0.63319147,0.003877115
595109083,594989730,0,-9.454338,0.0344357,-0.14734364,0.63337284,0.00380856
595269233,595144462,0,-9.4645195,0.034969956,-0.17394733,0.6345779,0.0052979537
595359274,595239714,0,-9.475441,0.03439026,-0.1894989,0.6332147,0.006301151
595480033,595360004,0,-9.485411,0.03432599,-0.17327595,0.63300955,0.0052701603
595609718,595489724,0,-9.496658,0.034419518,-0.19497204,0.6331958,0.0066705877
595739957,595614948,0,-9.509604,0.034502804,-0.22391129,0.63336575,0.008795386
595860135,595740652,0,-9.52353,0.034425974,-0.24133396,0.6331443,0.01022096
595980492,595858662,0,-9.536409,0.034357335,-0.22360611,0.63294244,0.008777293
596111073,595990976,0,-9.551467,0.034447055,-0.26077843,0.6331515,0.011934197
596281127,596157654,0,-9.569846,0.035130538,-0.31264496,0.63492596,0.017105559
596371282,596247522,0,-9.587233,0.034533165,-0.30049324,0.633485,0.015837643
596501207,596376292,0,-9.604525,0.034604527,-0.2983322,0.6337459,0.01560424
596621315,596496292,0,-9.623298,0.03451791,-0.32474327,0.6337448,0.018489426
596741610,596624650,0,-9.641444,0.034441162,-0.3146305,0.63370454,0.017356906
596861921,596740907,0,-9.658756,0.03437333,-0.30080128,0.63372713,0.015864067
596991906,596872779,0,-9.675449,0.034464788,-0.28948784,0.6342411,0.014681274
597112611,596991679,0,-9.691969,0.034396198,-0.28712082,0.63431835,0.014440412
597282460,597157411,0,-9.711368,0.03509111,-0.33126736,0.63653034,0.019155595
597352648,597235797,0,-9.726145,0.034201335,-0.25837994,0.6343018,0.011694432
597492369,597368169,0,-9.741778,0.03446572,-0.27156162,0.63525915,0.012898623
597613309,597493719,0,-9.756566,0.034400027,-0.25738811,0.6352386,0.011587709
597743043,597619763,0,-9.773346,0.034493044,-0.29142284,0.63565,0.014845219
597853429,597732789,0,-9.790026,0.034274373,-0.2914505,0.63524216,0.01485757
597993418,597869035,0,-9.807603,0.034532644,-0.3050499,0.6359547,0.016258223
598114248,597995615,0,-9.824174,0.03446155,-0.28821468,0.63593346,0.014513696
598283953,598160699,0,-9.845998,0.03515342,-0.3728304,0.6378902,0.024212195
598353950,598230483,0,-9.863252,0.034260433,-0.3017378,0.63550276,0.015918402
598484265,598360651,0,-9.880264,0.03437001,-0.2966776,0.63582003,0.015381291
598604652,598484823,0,-9.899642,0.034316693,-0.33838654,0.6356757,0.02001465
598734554,598613653,0,-9.916461,0.034420244,-0.29291058,0.6359505,0.01499009
598845077,598727711,0,-9.933404,0.0342102,-0.29669094,0.6353452,0.015394171
598985220,598860661,0,-9.950016,0.03447616,-0.28885555,0.6360578,0.014575463
599115894,598994279,0,-9.966018,0.034562428,-0.27760315,0.63627267,0.013457458
599285493,599165669,0,-9.985373,0.03524335,-0.32989788,0.6381608,0.018949006
599355741,599236869,0,-9.99884,0.034340445,-0.23500252,0.6356216,0.009653924
599495887,599374973,0,-10.011726,0.034591928,-0.22332764,0.6362191,0.008710353
599616612,599497701,0,-10.024142,0.03451391,-0.21557999,0.6359151,0.008120359
599746295,599621475,0,-10.034719,0.03459499,-0.18323803,0.6360227,0.00586565
599856257,599734691,0,-10.045388,0.034365118,-0.18594933,0.63539994,0.0060464367
599986580,599869713,0,-10.055548,0.03446164,-0.17656422,0.63550824,0.005450567
600106911,599989713,0,-10.067343,0.034396205,-0.20530319,0.6351878,0.007373043
600277060,600153667,0,-10.0814295,0.035091717,-0.24063301,0.6367365,0.010104345
600357085,600236649,0,-10.095819,0.03435341,-0.25064182,0.6348183,0.0109955035
600497236,600372369,0,-10.109988,0.03460034,-0.24511719,0.6353031,0.010508097
600617968,600496683,0,-10.122974,0.034518182,-0.22510624,0.6349607,0.008867184
600747918,600622669,0,-10.1363125,0.034595557,-0.23069191,0.63506037,0.009311233
600857833,600738113,0,-10.150274,0.034362253,-0.2429409,0.63438344,0.010337296
600988096,600868663,0,-10.165306,0.03445589,-0.2608719,0.6345507,0.011916418
601118345,600993505,0,-10.178947,0.034539253,-0.23620033,0.6347078,0.009766628
601288503,601169787,0,-10.192764,0.035216898,-0.23501778,0.6364378,0.009642796
601368867,601243313,0,-10.205884,0.034462977,-0.22760391,0.63445956,0.009072208
601498886,601375591,0,-10.219249,0.03454517,-0.23133564,0.63460445,0.009369997
601609019,601489793,0,-10.230941,0.034316543,-0.20362759,0.6340537,0.0072661554
601739165,601614723,0,-10.243442,0.034414332,-0.21711254,0.63421553,0.008258296
601859355,601734705,0,-10.255439,0.034350265,-0.20868969,0.63396794,0.0076329457
601989542,601868883,0,-10.267967,0.034443818,-0.21735859,0.63411003,0.008278402
602110303,601990653,0,-10.2805395,0.034375966,-0.21847153,0.6338486,0.008366844
602269999,602146653,0,-10.292723,0.034918774,-0.20864773,0.6351136,0.007616113
602370163,602246029,0,-10.306454,0.03449714,-0.23776817,0.6339892,0.009907933
602490840,602372245,0,-10.319645,0.034422673,-0.2288475,0.63370585,0.009182525
602620655,602496917,0,-10.332627,0.03450687,-0.22467995,0.6338097,0.008849673
602740815,602620141,0,-10.344959,0.034430675,-0.21381474,0.6335245,0.008018061
602871327,602746281,0,-10.356834,0.034513332,-0.20540237,0.6336255,0.007398365
602991111,602871653,0,-10.367351,0.034435786,-0.18225479,0.6333425,0.0058274255
603121688,602996235,0,-10.379397,0.034517247,-0.20829487,0.63344526,0.007610366
603271681,603151661,0,-10.391117,0.0348912,-0.2005949,0.6342739,0.007048885
603371600,603248715,0,-10.402466,0.034470394,-0.19645882,0.6332851,0.006771756
603491928,603371001,0,-10.414046,0.03439672,-0.20084,0.63302404,0.0070800725
603612168,603495149,0,-10.426656,0.03433073,-0.21903515,0.632783,0.008424232
603732173,603611677,0,-10.438076,0.034271594,-0.19866848,0.63256097,0.00693287
603872450,603747809,0,-10.448899,0.03452049,-0.18700409,0.6330859,0.0061375787
603992625,603871681,0,-10.459444,0.034440413,-0.18257046,0.63284045,0.0058522685
604113292,603995679,0,-10.470048,0.03436883,-0.1839323,0.6326172,0.0059419987
604283198,604158657,0,-10.477627,0.035058912,-0.12905788,0.6342538,0.0029178534
604373296,604252211,0,-10.486013,0.03446744,-0.14507961,0.6328163,0.003695665
604493321,604369265,0,-10.49298,0.03439266,-0.120747566,0.632592,0.0025608877
604614074,604489281,0,-10.4998455,0.03432577,-0.119190216,0.6323735,0.0024961177
604723907,604606701,0,-10.507231,0.03411517,-0.12896633,0.6318928,0.002924602
604864195,604739129,0,-10.512186,0.034379926,-0.08588886,0.63242555,0.0012960501
604984094,604863803,0,-10.51929,0.034313884,-0.12334156,0.63218755,0.0026738094
605124391,605003653,0,-10.525298,0.034556456,-0.10362816,0.632665,0.0018859894
605264760,605147667,0,-10.533438,0.03477194,-0.13952827,0.63299924,0.0034172656
605374695,605250087,0,-10.542044,0.034511663,-0.1485691,0.63241255,0.0038780556
605494836,605371083,0,-10.5513735,0.034430247,-0.16139507,0.6321358,0.0045785466
605615514,605491651,0,-10.561574,0.034357365,-0.17677975,0.6318754,0.005495296
605745269,605624655,0,-10.572722,0.034442946,-0.19272137,0.63197815,0.0065300297
605865433,605748741,0,-10.583413,0.034368083,-0.18515491,0.6317203,0.006029803
605995698,605876813,0,-10.595995,0.034451913,-0.21739388,0.63182557,0.008311031
606125779,606002175,0,-10.606489,0.03452634,-0.18092537,0.6319183,0.0057556643
606286046,606161885,0,-10.615553,0.03504436,-0.15409279,0.63304406,0.0041676206
606376539,606251389,0,-10.625709,0.03445065,-0.17541504,0.6316447,0.0054127537
606496439,606375665,0,-10.636951,0.03437383,-0.19458866,0.63140106,0.0066632675
606617153,606499935,0,-10.649343,0.034305423,-0.21486664,0.63126326,0.008126152
606736726,606616737,0,-10.660831,0.03424422,-0.19952488,0.6310592,0.0070094103
606866932,606746275,0,-10.671935,0.03434034,-0.19231606,0.63121825,0.00651042
606997131,606872913,0,-10.683838,0.03442586,-0.2056694,0.63137037,0.007444108
607117455,606998659,0,-10.69511,0.034351137,-0.19516182,0.6311713,0.006705018
607287532,607163955,0,-10.707184,0.035037763,-0.20518017,0.63265425,0.0073937
607367875,607250709,0,-10.719912,0.034293126,-0.22070885,0.631047,0.008576997
607487837,607368657,0,-10.733851,0.0342328,-0.24211502,0.6308963,0.010323881
607618398,607493333,0,-10.747945,0.03432989,-0.24413967,0.63111454,0.010493636
607738256,607614051,0,-10.7624035,0.03426556,-0.25090885,0.63097435,0.011086074
607858549,607741659,0,-10.77883,0.03420851,-0.28552437,0.6309382,0.01435678
607988815,607871489,0,-10.793136,0.034308624,-0.24800491,0.63118905,0.010827261
608118956,607997159,0,-10.8072195,0.034397975,-0.24358368,0.63143134,0.010440654
608299188,608178665,0,-10.813829,0.03523086,-0.11180496,0.63338673,0.0021928588
608379181,608259703,0,-10.82477,0.03446622,-0.18892097,0.63174623,0.006277333
608499664,608380663,0,-10.835832,0.034388285,-0.19143677,0.63161516,0.0064469697
608619696,608500051,0,-10.846013,0.034318976,-0.17653656,0.6315021,0.005483426
608749736,608630203,0,-10.853878,0.034408297,-0.13606834,0.63176847,0.0032562201
608879955,608755743,0,-10.859805,0.034488134,-0.10233116,0.63202304,0.0018409432
609000254,608879779,0,-10.864203,0.034408648,-0.07610226,0.6318992,0.001018368
609120610,608998651,0,-10.868323,0.03433798,-0.07143021,0.6317914,0.00089732045
609291062,609171443,0,-10.867097,0.03502894,0.020874977,0.6334595,7.643471e-05
609370900,609251937,0,-10.869693,0.03428794,-0.045087814,0.6318373,0.0003574955
609611582,609490671,0,-10.86844,0.034164455,0.00983429,0.6317364,1.7010128e-05
609741286,609621673,0,-10.866025,0.03427252,0.04196453,0.6320464,0.0003095803
609871363,609748963,0,-10.8641815,0.034369104,0.031954765,0.6323377,0.00017942366
609991582,609870709,0,-10.8624,0.034304466,0.030940056,0.63223505,0.00016823683
610111718,609987689,0,-10.860933,0.034246955,0.025520325,0.6321416,0.00011447628
610292046,610167111,0,-10.855784,0.035100628,0.087563515,0.63422817,0.0013432546
610372217,610247971,0,-10.850741,0.034353726,0.08749962,0.63254684,0.0013448601
610492480,610371665,0,-10.847305,0.03429152,0.05972004,0.63243496,0.0006265876
610602511,610480465,0,-10.843402,0.034085013,0.06823635,0.6319466,0.0008186697
610733039,610611825,0,-10.841458,0.034202788,0.033864975,0.6322218,0.00020155314
610862929,610738455,0,-10.839341,0.034307793,0.036776543,0.6324544,0.00023761294
610983383,610858913,0,-10.837426,0.034250364,0.03331852,0.63228196,0.0001950824
611103522,610979857,0,-10.834772,0.034199256,0.04625511,0.632198,0.00037603118
611273608,611148681,0,-10.830786,0.03490744,0.0681324,0.6337391,0.00081386877
611363749,611244865,0,-10.828334,0.034332123,0.042562485,0.63241744,0.0003182787
611493936,611374451,0,-10.825245,0.034422528,0.053477287,0.6325481,0.0005023456
611614374,611489157,0,-10.820713,0.03435194,0.078603745,0.63229764,0.0010857314
611744558,611623651,0,-10.816392,0.034439594,0.07475948,0.63241035,0.0009819539
611874429,611749095,0,-10.811728,0.034517415,0.080519676,0.63250273,0.0011389356
611994633,611873663,0,-10.807741,0.034435637,0.068959236,0.63222677,0.00083573675
612105193,611987781,0,-10.804404,0.034211528,0.058070183,0.6316184,0.00059321086
612295084,612170271,0,-10.797593,0.03521709,0.11533737,0.63376975,0.0023322015
612375155,612250161,0,-10.792575,0.03445509,0.08672333,0.63205165,0.001322138
612495410,612372201,0,-10.78828,0.03437908,0.07437801,0.63179624,0.0009729031
612605733,612488671,0,-10.783579,0.03416013,0.08187294,0.63121456,0.0011799437
612745739,612621377,0,-10.778736,0.034417346,0.08375549,0.63172096,0.0012338398
612875975,612751191,0,-10.772371,0.03449553,0.10983086,0.63184285,0.002121276
612996170,612871323,0,-10.766048,0.03441422,0.10934067,0.63161,0.0021031583
613116844,612991265,0,-10.757489,0.034341898,0.14831161,0.6314874,0.0038702867
613286548,613169713,0,-10.74576,0.03503072,0.19947147,0.6329727,0.00698448
613366832,613246703,0,-10.736149,0.03428788,0.16677284,0.6313427,0.0048948904
613496957,613371973,0,-10.723608,0.03438001,0.21705627,0.6315311,0.008289101
613617076,613491679,0,-10.711868,0.03431122,0.20356846,0.63136077,0.00729291
613747402,613623653,0,-10.697971,0.03440076,0.24038696,0.63156474,0.010166265
613857424,613736675,0,-10.687208,0.03417879,0.18730831,0.6310533,0.006177397
613987624,613864793,0,-10.673463,0.03428275,0.23852539,0.63129866,0.010013637
614107781,613984501,0,-10.659554,0.034224592,0.2417593,0.63117844,0.010288966
614268098,614147663,0,-10.642787,0.034776215,0.287138,0.6325148,0.014483319
614368254,614241657,0,-10.628186,0.034363054,0.25286198,0.6315921,0.011248324
614498517,614373597,0,-10.614214,0.03444754,0.24145603,0.63183516,0.010252502
614618978,614500051,0,-10.59976,0.034372136,0.25030518,0.63170546,0.011020023
614739082,614620665,0,-10.585083,0.034305353,0.25467587,0.63168144,0.011408668
614869468,614749707,0,-10.571321,0.0343969,0.23824501,0.6319517,0.009979785
614989185,614868657,0,-10.555651,0.034327798,0.2717924,0.631842,0.012990433
615119371,614999821,0,-10.541302,0.0344173,0.24830437,0.6321159,0.010837509
615289623,615166681,0,-10.522294,0.035100095,0.32301903,0.6337799,0.018292591
615359906,615238889,0,-10.507381,0.034200903,0.25965023,0.6317625,0.011857171
615490141,615364985,0,-10.491936,0.034304872,0.2681942,0.63206285,0.012644335
615610595,615486641,0,-10.476154,0.034246802,0.27447128,0.63197374,0.013245009
615740318,615615519,0,-10.460924,0.034346167,0.2642107,0.63226885,0.012267512
615860534,615738681,0,-10.446196,0.034284,0.25595093,0.6321715,0.011514259
615990685,615866893,0,-10.431306,0.03437971,0.25812244,0.63246036,0.011705115
616121183,615997407,0,-10.413369,0.034465276,0.31025696,0.6327335,0.01690362
616291119,616167557,0,-10.394261,0.03514484,0.32464695,0.6344769,0.018457139
616371515,616246949,0,-10.375885,0.03439328,0.31853962,0.6326712,0.017819945
616491454,616366927,0,-10.356326,0.03432708,0.33969116,0.632591,0.02026763
616621324,616496883,0,-10.335522,0.03441888,0.36041164,0.6327805,0.022808779
616741871,616622497,0,-10.313697,0.034349658,0.37876034,0.632569,0.025198726
616872232,616747365,0,-10.290354,0.03443865,0.4040985,0.63271916,0.028676162
616982520,616862653,0,-10.266341,0.034215882,0.41815186,0.6321201,0.030734485
617122409,616999171,0,-10.240375,0.034469724,0.4490013,0.6326272,0.035408285
617292912,617173905,0,-10.21224,0.0351473,0.4776497,0.6340559,0.039980564
617372749,617249703,0,-10.185319,0.0343943,0.46635818,0.63232356,0.038217064
617482955,617364203,0,-10.158643,0.034175284,0.4647913,0.6317131,0.037997376
