timestamp,timestamp_sample,device_id,bias,bias_var,innov,innov_var,innov_test_ratio
564911372,564787270,0,-6.9316487,0.03527025,-0.06679106,0.635598,0.00077985093
564980299,564857788,0,-6.93498,0.034343157,-0.05790186,0.6333733,0.0005881427
565098849,564977900,0,-6.937446,0.03426113,-0.04295969,0.63314515,0.0003238743
565266515,565145754,0,-6.940181,0.034932405,-0.046782017,0.63472664,0.00038311456
565356512,565230878,0,-6.9424996,0.034339737,-0.04030943,0.63333946,0.00028505866
565483841,565360844,0,-6.944801,0.03440707,-0.03992319,0.63348794,0.00027955652
565602506,565482756,0,-6.946405,0.034318037,-0.027899742,0.63324755,0.00013657914
565731346,565606758,0,-6.948445,0.03438759,-0.035411358,0.6334023,0.00021996978
565850725,565729120,0,-6.9507303,0.034300532,-0.039764404,0.6331675,0.00027747755
565978242,565854796,0,-6.9540997,0.034371853,-0.058511257,0.633327,0.0006006318
566118737,565993018,0,-6.9572954,0.034584437,-0.05517769,0.6338509,0.0005337002
566274816,566157034,0,-6.961083,0.03507163,-0.064561844,0.6350977,0.0007292372
566354197,566236732,0,-6.964348,0.034314983,-0.056792736,0.6333005,0.0005658916
566482672,566365002,0,-6.9681764,0.034385063,-0.0664711,0.6334555,0.0007750097
566611992,566490718,0,-6.9716783,0.034447536,-0.060696125,0.6335978,0.00064604945
566739368,566616898,0,-6.9750996,0.034503233,-0.059206486,0.6337277,0.0006146012
566859623,566737738,0,-6.9795675,0.034403864,-0.07752991,0.63346934,0.001054315
566978727,566857728,0,-6.9839287,0.034315147,-0.07585001,0.63323206,0.001009499
567114899,566989946,0,-6.98832,0.034534015,-0.07592678,0.6337667,0.0010106901
567264566,567144126,0,-6.9931617,0.03487804,-0.082960606,0.6346411,0.0012049613
567362358,567238704,0,-6.9981565,0.03444013,-0.08658314,0.63354665,0.001314757
567481366,567358718,0,-7.0017266,0.03434747,-0.062039375,0.6333007,0.00067527755
567611012,567488848,0,-7.0046067,0.034413792,-0.04995489,0.6334506,0.0004377244
567866235,567741400,0,-7.00776,0.034525625,-0.04096985,0.6337135,0.000294302
567975399,567855458,0,-7.005782,0.034274865,0.03444004,0.6331721,0.00020814358
568282028,568157648,0,-7.0078015,0.03514322,-0.024807453,0.63526297,0.00010763867
568481500,568356246,0,-7.0048366,0.034292873,0.0661993,0.63321495,0.0007689767
568607581,568490774,0,-7.003044,0.034365196,0.031129837,0.6333759,0.00017000028
568737268,568617386,0,-7.001469,0.03442967,0.027309418,0.6335231,0.00013080366
568864598,568740094,0,-7.0031075,0.03448715,-0.028360844,0.63365847,0.00014103943
569114078,568991720,0,-7.0051174,0.03446715,-0.0318985,0.63357925,0.00017844197
569270154,569148894,0,-7.0098405,0.034967184,-0.08072996,0.63484925,0.0011406604
569478686,569358622,0,-7.0142303,0.034285277,-0.060050488,0.6331285,0.0006328469
569606098,569486328,0,-7.01768,0.034358196,-0.059927464,0.6332923,0.0006300936
569735350,569616724,0,-7.0216103,0.03442321,-0.06815195,0.6334429,0.0008147167
569864606,569739600,0,-7.0261416,0.03448118,-0.07845259,0.6335813,0.0010793684
569981577,569856942,0,-7.029061,0.034384176,-0.050679684,0.63342845,0.00045053413
570110061,569993720,0,-7.034155,0.034446634,-0.0882864,0.6335753,0.0013669317
570279573,570160808,0,-7.0432034,0.03509752,-0.15413141,0.6351342,0.0041559883
570357229,570237728,0,-7.048283,0.034337975,-0.088305,0.6333333,0.0013680303
570486380,570360652,0,-7.054588,0.03440547,-0.109392166,0.6334863,0.0020989047
570616965,570490396,0,-7.0604067,0.03446564,-0.10080099,0.6336267,0.0017817781
570732899,570608760,0,-7.064875,0.03437026,-0.07760477,0.63337815,0.0010565043
570861502,570740812,0,-7.0712633,0.03443416,-0.110753536,0.63352644,0.0021513344
570981271,570861492,0,-7.076709,0.03434209,-0.09463692,0.6332849,0.0015713738
571109008,570985212,0,-7.0826826,0.03440895,-0.10363579,0.63343936,0.0018839613
571268211,571142128,0,-7.092481,0.03491535,-0.16771889,0.6347211,0.004924232
571357768,571232226,0,-7.0983815,0.034324612,-0.10261202,0.6333387,0.0018472171
571483852,571359792,0,-7.1065197,0.034393676,-0.14126015,0.63349557,0.003499881
571602744,571482276,0,-7.117401,0.03430619,-0.18931818,0.63326216,0.0062886667
571731492,571612300,0,-7.1271257,0.034377135,-0.16886806,0.63342404,0.005002165
571859583,571736770,0,-7.1379113,0.034440394,-0.1869688,0.63357216,0.006130554
571989198,571863440,0,-7.147276,0.034496803,-0.16208887,0.63370806,0.004606538
572108280,571983710,0,-7.1569567,0.034398086,-0.16800117,0.6334547,0.0049507
572264922,572144172,0,-7.1661296,0.034905817,-0.15705967,0.63473964,0.004318085
572354373,572234416,0,-7.1719055,0.034315918,-0.10045767,0.6332616,0.0017706818
572482899,572360288,0,-7.178472,0.034385733,-0.11399555,0.6334199,0.0022795105
572610752,572488160,0,-7.184137,0.034447975,-0.09817648,0.63356507,0.0016903677
572740859,572615430,0,-7.1937795,0.034503475,-0.16686201,0.63369775,0.004881916
572859847,572735046,0,-7.202951,0.034403946,-0.15913057,0.6334414,0.004441793
572996358,572871292,0,-7.2135425,0.034613136,-0.18274832,0.63396126,0.00585331
573115790,572995402,0,-7.2237544,0.03450175,-0.17671919,0.63368183,0.0054758764
573283005,573159598,0,-7.235146,0.035146832,-0.19381475,0.63532895,0.0065695033
573352794,573233402,0,-7.2451363,0.0342331,-0.17416716,0.63313264,0.0053234766
573492057,573372272,0,-7.254966,0.034461122,-0.17031574,0.6336816,0.0050862296
573621150,573497256,0,-7.2632966,0.034515474,-0.14413548,0.6338091,0.0036420072
573737681,573620192,0,-7.2724276,0.03441491,-0.15840292,0.6335469,0.004400531
573856619,573736632,0,-7.281243,0.03432513,-0.15329361,0.6333061,0.004122797
573995509,573870806,0,-7.2902527,0.034543037,-0.15576029,0.6338392,0.004252966
574114535,573992210,0,-7.298722,0.034439385,-0.1468172,0.6335725,0.0037802025
574273342,574152454,0,-7.3082976,0.034942653,-0.16380739,0.6348458,0.0046963044
574352589,574231734,0,-7.315877,0.034199733,-0.13224363,0.6329797,0.0030698506
574489159,574370714,0,-7.326942,0.034433033,-0.192029,0.6341125,0.0064613735
574607953,574489028,0,-7.3373566,0.034344967,-0.18133688,0.6344559,0.005758751
574735918,574615780,0,-7.349098,0.03441741,-0.20425129,0.635224,0.007297267
574854534,574729468,0,-7.360453,0.03433523,-0.19818306,0.6356996,0.006864969
575023903,574900100,0,-7.3733344,0.035008892,-0.22106695,0.6379835,0.0085112965
575140838,575016856,0,-7.3898134,0.034866657,-0.2841153,0.6381501,0.014054776
575259773,575143050,0,-7.4072285,0.03474137,-0.30147743,0.6382932,0.015821472
575361617,575233754,0,-7.424181,0.034330476,-0.29657078,0.63699067,0.01534197
575487544,575366942,0,-7.440747,0.034410004,-0.28903103,0.6368693,0.014574582
575617087,575490908,0,-7.4571824,0.034479916,-0.28607035,0.6367209,0.014280852
575746747,575620508,0,-7.4737964,0.034541223,-0.288548,0.63655084,0.014533175
575852953,575730606,0,-7.4909973,0.034298528,-0.30080462,0.63618344,0.015803168
575991127,575870378,0,-7.5098224,0.034530032,-0.32730484,0.6370037,0.018686173
576111394,575991484,0,-7.528619,0.0344392,-0.32772207,0.6369959,0.018734075
576277751,576161316,0,-7.5488744,0.035104074,-0.3471794,0.63896453,0.020959875
576356901,576236958,0,-7.5693965,0.034357045,-0.35894346,0.6373678,0.022460502
576498252,576371660,0,-7.5900435,0.0345852,-0.35899115,0.6380258,0.0224433
576614291,576492092,0,-7.612687,0.03449159,-0.39487314,0.63807607,0.027151901
576742275,576619772,0,-7.6349626,0.034557644,-0.38786507,0.6383929,0.026183683
576861551,576737210,0,-7.658621,0.03446783,-0.41301107,0.6382783,0.029694144
576990018,576871778,0,-7.6795626,0.03453327,-0.3643093,0.63738966,0.023136253
577119161,576998762,0,-7.697324,0.034592025,-0.30855465,0.6376467,0.016589817
577278334,577158186,0,-7.713999,0.03509362,-0.28620148,0.63960147,0.01422957
577365048,577241110,0,-7.7279987,0.034497537,-0.24404049,0.63793457,0.010373018
577484435,577367764,0,-7.7404404,0.03441333,-0.21742725,0.6378924,0.008234515
577613598,577493498,0,-7.7500243,0.03448823,-0.16722488,0.63836455,0.004867327
577741044,577617862,0,-7.760352,0.03455588,-0.1799531,0.6387712,0.0056328843
577870421,577744624,0,-7.7693915,0.03461687,-0.15729904,0.63910973,0.0043016416
577999560,577873754,0,-7.778995,0.034671742,-0.16690683,0.63938046,0.0048411256
578116837,577991850,0,-7.7868423,0.03457148,-0.13673735,0.6390834,0.0032506802
578274670,578150108,0,-7.797486,0.035079412,-0.18311691,0.6407671,0.0058145244
578364156,578246716,0,-7.807728,0.034488242,-0.17887926,0.6389362,0.005564421
578492757,578369118,0,-7.817241,0.034556855,-0.16583729,0.6390652,0.004781638
578631949,578505932,0,-7.8286633,0.0347672,-0.19800997,0.63960975,0.0068110884
578740914,578615564,0,-7.839424,0.034506742,-0.18775415,0.6386698,0.0061328197
578867774,578749770,0,-7.850422,0.034572016,-0.19150734,0.63869685,0.0063801897
578986443,578869988,0,-7.8607016,0.0344804,-0.17937183,0.63823813,0.005601228
579135363,579010700,0,-7.871343,0.034845587,-0.18388367,0.63910246,0.0058785924
579273237,579156560,0,-7.882062,0.03502177,-0.18431902,0.63940835,0.005903635
579373020,579247754,0,-7.892108,0.03458177,-0.17465973,0.6379377,0.005313305
579500156,579375208,0,-7.902334,0.03463556,-0.17747116,0.6378472,0.0054865135
579619649,579495210,0,-7.912435,0.034533598,-0.17569828,0.63732123,0.0053818813
579737719,579618178,0,-7.923739,0.034441695,-0.19701815,0.63681996,0.0067725666
579866667,579748020,0,-7.9359293,0.03450795,-0.21200514,0.63674223,0.007843079
579994510,579875718,0,-7.9489603,0.03456664,-0.22621822,0.6367618,0.008929675
580124429,580000600,0,-7.962815,0.034618195,-0.24009228,0.63665116,0.010060333
580271228,580148752,0,-7.977863,0.034960955,-0.25828314,0.6371986,0.011632547
580370359,580246720,0,-7.9929223,0.034521375,-0.26144457,0.63595176,0.011942427
580488811,580368966,0,-8.008182,0.03442644,-0.2654748,0.6354734,0.012322725
580617883,580494722,0,-8.02458,0.034490015,-0.28470707,0.635404,0.014174379
580735734,580610808,0,-8.041621,0.034396954,-0.2964983,0.6349516,0.015383717
580865848,580744716,0,-8.059997,0.03446226,-0.3190298,0.63490385,0.017811975
580992745,580869812,0,-8.079508,0.034519825,-0.33813,0.6348511,0.020010274
581111865,580989989,0,-8.099743,0.03442156,-0.35148048,0.63442445,0.021636153
581270026,581145603,0,-8.121246,0.034929037,-0.36839962,0.6355158,0.023728458
581368375,581244669,0,-8.142584,0.034487557,-0.3697796,0.6342824,0.023953043
581497192,581371701,0,-8.163969,0.03454024,-0.36999798,0.6342618,0.023982124
581617569,581491403,0,-8.187713,0.034438122,-0.41190052,0.63397366,0.029735208
581734055,581611205,0,-8.210518,0.034346584,-0.3965044,0.6336175,0.027569339
581862701,581741135,0,-8.233899,0.03441352,-0.40570736,0.63365686,0.02886218
581991419,581867239,0,-8.257072,0.034472864,-0.4013872,0.63369447,0.028249102
582119681,581999905,0,-8.281407,0.034525473,-0.42084694,0.6337313,0.031052792
582268259,582146861,0,-8.306769,0.034869842,-0.4345665,0.6345066,0.033069972
582368408,582247395,0,-8.332561,0.034432184,-0.447052,0.63337785,0.035059903
582495137,582372317,0,-8.3570175,0.034488548,-0.42323685,0.63344896,0.031420477
582614145,582496741,0,-8.382376,0.034389656,-0.43996906,0.633151,0.033969916
582733188,582614729,0,-8.407517,0.034301255,-0.43720436,0.63288057,0.033558667
582871074,582747881,0,-8.433139,0.03452022,-0.44290543,0.6333705,0.03441293
582999819,582873923,0,-8.45826,0.03456643,-0.4336977,0.6334588,0.03299236
583120271,582997741,0,-8.483047,0.034458626,-0.42914867,0.6331747,0.03231837
583285679,583165767,0,-8.5084505,0.03510671,-0.43234444,0.6347799,0.032718554
583365125,583248785,0,-8.533178,0.03434492,-0.4295168,0.6329992,0.032382816
583494036,583369809,0,-8.558526,0.034410335,-0.43949604,0.6331416,0.033897415
583612536,583493897,0,-8.582639,0.034319635,-0.419096,0.63290566,0.030835113
583741065,583619857,0,-8.6060295,0.034387704,-0.40579128,0.6330628,0.028901218
583870563,583745231,0,-8.628777,0.034448415,-0.3939886,0.6332114,0.027238056
583987555,583868925,0,-8.650936,0.034353577,-0.38478088,0.63297874,0.025989344
584116689,583993071,0,-8.672758,0.034417987,-0.37826824,0.6331401,0.025110621
584274851,584153669,0,-8.695396,0.03492213,-0.3872242,0.6344227,0.026260545
584363320,584246095,0,-8.718344,0.03432928,-0.39875412,0.63296926,0.027911633
584492258,584373801,0,-8.739616,0.034396462,-0.36899185,0.6331397,0.023894142
584612913,584491743,0,-8.759463,0.034307383,-0.34508324,0.63292366,0.02090518
584738927,584620733,0,-8.777708,0.034376953,-0.3166399,0.63310146,0.01759606
584867238,584744725,0,-8.795281,0.034439057,-0.30449295,0.633267,0.016267661
584996002,584871155,0,-8.812169,0.034494817,-0.29223537,0.6335163,0.014978394
585114771,584991073,0,-8.829279,0.03439559,-0.29686928,0.63327926,0.015462964
585273713,585148623,0,-8.846322,0.034902506,-0.29171658,0.63447493,0.014902709
585363040,585237667,0,-8.862058,0.03431238,-0.27365685,0.63311327,0.013142823
585490218,585368801,0,-8.877394,0.034381974,-0.26619434,0.63328373,0.012432453
585608539,585489847,0,-8.891989,0.03429503,-0.25392628,0.6330661,0.011316801
585737387,585618485,0,-8.90701,0.034366496,-0.26085377,0.63324463,0.011939337
585865801,585747879,0,-8.919791,0.034430277,-0.2215643,0.6334112,0.00861135
585994803,585869875,0,-8.930604,0.03448721,-0.18717194,0.633567,0.0061439327
586115562,585989191,0,-8.940356,0.034389038,-0.16925716,0.6333333,0.005025963
586290507,586165345,0,-8.952681,0.03519484,-0.20940495,0.63541585,0.007667844
586369775,586244761,0,-8.960558,0.034424517,-0.1366005,0.6334961,0.0032727895
586488510,586371831,0,-8.968399,0.03433368,-0.13633442,0.6333683,0.0032607098
586606623,586481735,0,-8.973844,0.034252577,-0.094864845,0.63315535,0.0015792752
586746566,586620975,0,-8.980126,0.03447818,-0.10880852,0.63368726,0.0020759092
586865424,586745507,0,-8.987012,0.034381285,-0.11953926,0.63340455,0.0025066717
586992791,586871747,0,-8.993224,0.034443643,-0.10766983,0.63349646,0.0020332995
587101080,586984715,0,-8.997634,0.034200985,-0.07691383,0.63283044,0.0010386735
587269650,587152731,0,-9.003718,0.03487788,-0.1042099,0.6343964,0.0019020186
587357927,587241139,0,-9.009024,0.034289885,-0.09229565,0.6328999,0.0014954949
587487568,587366949,0,-9.01275,0.03436103,-0.0646801,0.6329697,0.0007343717
587606734,587481605,0,-9.016709,0.034275163,-0.068881035,0.63266325,0.000833267
587733587,587612209,0,-9.019593,0.0343472,-0.050061226,0.6327273,0.0004400924
587862133,587739787,0,-9.022888,0.034411084,-0.057099342,0.6327737,0.00057249446
587991406,587872429,0,-9.024753,0.03446768,-0.032244682,0.6328048,0.00018255929
588099673,587982331,0,-9.026034,0.034220185,-0.022320747,0.6322103,8.7561544e-05
588268895,588150715,0,-9.028122,0.03489204,-0.03568268,0.63359344,0.0002232861
589101027,588981725,0,-9.027012,0.03421446,0.007987022,0.6314937,1.1224274e-05
589265354,589143863,0,-9.0292015,0.034884986,-0.03740883,0.63301057,0.00024563755
589483739,589362753,0,-9.031908,0.034358583,-0.03054142,0.63172394,0.00016406224
589612526,589486263,0,-9.033244,0.034417965,-0.023115158,0.6318413,9.396004e-05
589731451,589612747,0,-9.035336,0.034322243,-0.036278725,0.63169163,0.00023150288
589858406,589739343,0,-9.03705,0.03438579,-0.029691696,0.63183284,0.00015503341
589986852,589862303,0,-9.040292,0.034442447,-0.056030273,0.63197047,0.0005519582
590107025,589987715,0,-9.043059,0.03434409,-0.047968864,0.63174784,0.00040469944
590273493,590156231,0,-9.048761,0.035000198,-0.09710312,0.6332538,0.001654421
590352685,590236373,0,-9.052571,0.03424591,-0.066223145,0.63158625,0.00077151513
590482915,590361727,0,-9.057422,0.034318056,-0.08415127,0.6317711,0.0012454293
590609481,590486533,0,-9.062357,0.034382474,-0.085476875,0.63194954,0.0012846132
590737996,590613393,0,-9.067913,0.034440022,-0.0960865,0.63212186,0.0016228615
590857689,590737829,0,-9.075199,0.034342535,-0.12634087,0.63192636,0.002806588
590985197,590862731,0,-9.082409,0.034404673,-0.12481785,0.6321144,0.0027385154
591115191,590992729,0,-9.091888,0.034460198,-0.16388035,0.63229525,0.0047194497
591276974,591155831,0,-9.101641,0.03495631,-0.16640568,0.63357496,0.004856191
591355838,591238255,0,-9.111443,0.0342081,-0.17066097,0.6319054,0.005121225
591474527,591357941,0,-9.121763,0.034136705,-0.1800518,0.6317635,0.0057016155
591608396,591488309,0,-9.13178,0.03422215,-0.17435265,0.6320036,0.0053443513
591726530,591608853,0,-9.142583,0.03414947,-0.1884327,0.63186353,0.0062437677
591865021,591740327,0,-9.154001,0.03438281,-0.1979227,0.6324782,0.006881818
591985362,591859363,0,-9.166493,0.034293097,-0.21707821,0.6322942,0.008280771
592112159,591989373,0,-9.180163,0.0343621,-0.23710537,0.6324753,0.009876355
592260129,592143739,0,-9.195232,0.03472139,-0.2588749,0.63335425,0.011756841
592359336,592239801,0,-9.20851,0.03429719,-0.23071194,0.6323268,0.009353111
592477786,592359835,0,-9.22096,0.034216635,-0.21676731,0.6320973,0.00825964
592617609,592491033,0,-9.23322,0.034442544,-0.21216965,0.63258934,0.007906825
592736421,592614727,0,-9.243799,0.034345977,-0.18354416,0.6323147,0.0059197773
592862913,592737947,0,-9.254917,0.034408614,-0.19253635,0.6324086,0.006513062
592971970,592854737,0,-9.264409,0.034166668,-0.1654787,0.63186914,0.0048152027
593110636,592991171,0,-9.274299,0.034397524,-0.17131329,0.63234234,0.0051568835
593268034,593151619,0,-9.284156,0.034900293,-0.16841888,0.63339186,0.0049758423
593367363,593242015,0,-9.292496,0.03445568,-0.14422417,0.6323963,0.0036546374
593477898,593355819,0,-9.297966,0.034207948,-0.0952158,0.6317536,0.0015945119
593614451,593489831,0,-9.303888,0.034433603,-0.10245609,0.6322137,0.0018448844
593733030,593613713,0,-9.310087,0.034336794,-0.10749817,0.63193154,0.0020318404
593861461,593736413,0,-9.31637,0.034399204,-0.1087656,0.6320228,0.0020797343
593979629,593856721,0,-9.320837,0.034305777,-0.077516556,0.6317559,0.0010568105
594108941,593987739,0,-9.32686,0.03437124,-0.10434532,0.6318631,0.0019146105
594275886,594150793,0,-9.333603,0.0350245,-0.1147728,0.6333862,0.0023108239
594355397,594239007,0,-9.338817,0.03426738,-0.09055805,0.6315956,0.0014426884
594483560,594358767,0,-9.343441,0.03433678,-0.08017349,0.63172734,0.0011305491
594613129,594488717,0,-9.349331,0.034398597,-0.10193539,0.6318548,0.001827217
594734533,594617717,0,-9.354156,0.034305055,-0.08372116,0.6317118,0.0012328464
594860098,594739781,0,-9.360388,0.034370553,-0.10795879,0.6318615,0.0020495176
594980435,594859223,0,-9.3669195,0.034280036,-0.11342144,0.63165,0.002262931
595106502,594989797,0,-9.373033,0.034348276,-0.105960846,0.6318186,0.0019744944
595264456,595144529,0,-9.380303,0.034855332,-0.12431717,0.6329769,0.002712888
595363373,595239781,0,-9.388525,0.03441472,-0.14227486,0.6320556,0.0035584306
595482077,595360071,0,-9.395463,0.03431976,-0.12037659,0.6318563,0.0025481395
595611167,595489791,0,-9.403346,0.03438412,-0.13653278,0.6320423,0.0032770664
595738376,595615015,0,-9.412697,0.03444164,-0.1617136,0.6322217,0.004596012
595857679,595740719,0,-9.422921,0.034344148,-0.17730331,0.63202876,0.0055265534
595975960,595858729,0,-9.4317255,0.034257315,-0.15305519,0.6318566,0.0041194106
596114862,595991043,0,-9.4430065,0.03447793,-0.19495583,0.63244134,0.006677435
596282641,596157721,0,-9.457327,0.03512114,-0.24335384,0.63414794,0.010376318
596372815,596247589,0,-9.47097,0.03450431,-0.23569775,0.63273203,0.009755478
596501531,596376359,0,-9.484237,0.034550384,-0.22897148,0.63297117,0.009203147
596618453,596496359,0,-9.498887,0.03444332,-0.25366402,0.6329336,0.011295802
596747149,596624717,0,-9.513363,0.0344973,-0.25035,0.6332231,0.010997549
596865108,596740973,0,-9.527482,0.034396976,-0.24489403,0.6331192,0.010525152
596993582,596872845,0,-9.541438,0.03445702,-0.24174881,0.6334353,0.010251418
597114153,596991745,0,-9.556032,0.03436205,-0.25349426,0.63333744,0.011273496
597280541,597157477,0,-9.573694,0.035022236,-0.301548,0.6351471,0.015907286
597359219,597235864,0,-9.587975,0.03427122,-0.24878311,0.633393,0.010857405
597487898,597368236,0,-9.602626,0.034346495,-0.25476837,0.6336694,0.011381141
597616121,597493786,0,-9.61719,0.034413863,-0.2528267,0.6339007,0.0112042315
597744606,597619830,0,-9.633758,0.034474198,-0.28715134,0.63412094,0.014447978
597854897,597732856,0,-9.650122,0.034230385,-0.28555775,0.63363373,0.014299048
597991660,597869102,0,-9.667392,0.03445981,-0.29950142,0.6341766,0.01571611
598120147,597995682,0,-9.684088,0.03451573,-0.28914356,0.634388,0.014642984
598279829,598160766,0,-9.704636,0.03501282,-0.3513279,0.6358372,0.021569338
598348243,598230550,0,-9.720819,0.03411573,-0.2834072,0.63362193,0.014084748
598485734,598360718,0,-9.73701,0.034358826,-0.28173065,0.63433075,0.013903045
598606111,598484890,0,-9.755482,0.03427785,-0.32215405,0.63417816,0.018183328
598732974,598613720,0,-9.771343,0.03435486,-0.27609825,0.6344402,0.013350395
598851752,598727778,0,-9.7880745,0.034274638,-0.29187584,0.63426936,0.014923822
598980832,598860728,0,-9.8037405,0.03435227,-0.2727394,0.63451654,0.013025977
599118164,598994346,0,-9.819258,0.034570806,-0.2686262,0.63514465,0.012623553
599286950,599165736,0,-9.837801,0.035212234,-0.3156681,0.6368319,0.017385777
599357285,599236936,0,-9.850896,0.034295212,-0.22838211,0.6345033,0.009133722
599496309,599375040,0,-9.863315,0.0345201,-0.21528912,0.6350753,0.008109171
599622179,599497768,0,-9.8757305,0.03457166,-0.21493816,0.63518053,0.008081415
599741397,599621542,0,-9.885839,0.034468472,-0.17547417,0.63486165,0.005388958
599859279,599734758,0,-9.896532,0.03437648,-0.18606377,0.6346547,0.006060991
599988025,599869780,0,-9.90707,0.034443133,-0.18302536,0.6347383,0.005863883
600108432,599989780,0,-9.919355,0.03435326,-0.21383858,0.63441616,0.008008577
600274624,600153734,0,-9.933626,0.03501708,-0.24401283,0.6359269,0.010403408
600353365,600236716,0,-9.948104,0.034268808,-0.2525158,0.6340545,0.011173982
600492350,600372436,0,-9.962019,0.03449501,-0.24120426,0.634554,0.010187294
600620619,600496750,0,-9.974495,0.03454763,-0.21593857,0.6346304,0.008163889
600739076,600622736,0,-9.9873,0.034445465,-0.2222271,0.63433486,0.008650335
600859169,600738180,0,-10.00082,0.03435413,-0.23518848,0.6340554,0.0096930945
600985939,600868730,0,-10.015186,0.034421578,-0.24943924,0.63420194,0.010900827
601119739,600993572,0,-10.027817,0.034481734,-0.21894646,0.63434786,0.008396646
601292786,601169854,0,-10.040194,0.03527972,-0.2101345,0.63646394,0.0077086515
601361563,601243380,0,-10.052109,0.034353837,-0.20730972,0.6341666,0.007529974
601500403,601375658,0,-10.064168,0.034570374,-0.2085762,0.63460094,0.007617041
601610256,601489860,0,-10.074339,0.034316767,-0.17712688,0.6340221,0.005498219
601737056,601614790,0,-10.085192,0.034388367,-0.18862724,0.6341569,0.0062340405
601855621,601734772,0,-10.094951,0.03430303,-0.169981,0.63388443,0.0050646355
601994055,601868950,0,-10.104896,0.034524713,-0.17218494,0.6343827,0.005192739
602112514,601990720,0,-10.114971,0.03442429,-0.17488384,0.6340651,0.0053594843
602271425,602146720,0,-10.124371,0.03493009,-0.16096878,0.63527435,0.004531891
602370860,602246096,0,-10.135402,0.034487545,-0.19112015,0.6341006,0.006400476
602497836,602372312,0,-10.145468,0.034539357,-0.17412472,0.6341415,0.005312417
602617062,602496984,0,-10.155366,0.034436323,-0.1716671,0.63379467,0.0051663406
602745833,602620208,0,-10.164205,0.03449304,-0.15303898,0.633836,0.0041056764
602863646,602746348,0,-10.172814,0.034394346,-0.14944935,0.63349605,0.0039174333
602992613,602871720,0,-10.1795635,0.03445492,-0.1169405,0.6335416,0.0023983484
603122869,602996302,0,-10.187682,0.03450861,-0.1404419,0.6335748,0.0034590191
603268431,603151728,0,-10.195058,0.0348538,-0.12641048,0.6343298,0.0027990364
603367500,603248782,0,-10.202251,0.034417346,-0.1247282,0.63329095,0.0027295027
603496352,603371068,0,-10.209302,0.034474578,-0.12204456,0.6333364,0.0026131233
603614885,603495216,0,-10.21748,0.03437641,-0.1419096,0.63301295,0.0035348295
603733673,603611744,0,-10.22459,0.034288548,-0.12365723,0.6327144,0.0026852752
603872886,603747876,0,-10.231074,0.03450777,-0.11208439,0.6331591,0.0022046259
603990304,603871748,0,-10.237541,0.03440522,-0.11208725,0.6328473,0.0022058247
604118222,603995746,0,-10.243852,0.03446247,-0.1091938,0.6329222,0.0020931636
604277735,604158724,0,-10.24741,0.03495969,-0.060757637,0.63408256,0.00064686465
604375133,604252278,0,-10.251684,0.03450994,-0.073866844,0.6329749,0.0009577895
604494775,604369332,0,-10.254736,0.03440656,-0.052869797,0.6326746,0.00049089926
604615333,604489348,0,-10.25768,0.034314144,-0.051138878,0.6323871,0.00045949084
604731259,604606768,0,-10.260971,0.034231745,-0.057289124,0.632202,0.0005768275
604987543,604863870,0,-10.264602,0.034373585,-0.046512604,0.6323495,0.00038013828
605126121,605003720,0,-10.266064,0.034581557,-0.025198936,0.63274324,0.00011150501
605266406,605147734,0,-10.26944,0.0347662,-0.05788517,0.63300055,0.0005881499
605375080,605250154,0,-10.273542,0.03448445,-0.070874214,0.63235897,0.000882613
605491805,605371150,0,-10.278413,0.034381855,-0.084358215,0.6320274,0.0012510548
605610371,605491718,0,-10.284159,0.034290064,-0.099752426,0.6317173,0.0017501757
605749614,605624722,0,-10.290368,0.034505595,-0.10716343,0.63211143,0.0020186314
605867286,605748808,0,-10.296291,0.034399748,-0.10250759,0.631784,0.0018479956
605997303,605876880,0,-10.304393,0.034453947,-0.13996696,0.63182116,0.0034451997
606124147,606002242,0,-10.310537,0.03450197,-0.10600567,0.63185114,0.0019760635
606282652,606161952,0,-10.315169,0.034990497,-0.078863144,0.6329034,0.0010918631
606371558,606251456,0,-10.321327,0.03438448,-0.10655403,0.63147473,0.0019977507
606499812,606375732,0,-10.328296,0.034439463,-0.12038612,0.63152695,0.0025498725
606618704,606500002,0,-10.336738,0.03433971,-0.14624691,0.6313217,0.0037642645
606738344,606616804,0,-10.344395,0.03425058,-0.13295841,0.63105613,0.0031125841
606867192,606746342,0,-10.3517065,0.034319796,-0.12670422,0.6311542,0.0028262082
606993901,606872980,0,-10.359799,0.034381334,-0.13999748,0.6312503,0.003449819
607122472,606998726,0,-10.367046,0.034436073,-0.12518024,0.6313459,0.002757793
607280480,607164022,0,-10.375082,0.03493057,-0.13694954,0.63239026,0.003295289
607369467,607250776,0,-10.383885,0.034330264,-0.15248871,0.6311135,0.004093788
607489287,607368724,0,-10.393881,0.03424169,-0.17355537,0.6309021,0.005304832
607619296,607493400,0,-10.404051,0.034311585,-0.17625332,0.63106024,0.0054696724
607735049,607614118,0,-10.414746,0.034225043,-0.18579865,0.6308697,0.0060799904
607863645,607741726,0,-10.426595,0.034296814,-0.20543957,0.6310498,0.007431253
607991929,607871556,0,-10.436568,0.034360886,-0.17263126,0.63122606,0.005245797
608120508,607997226,0,-10.446514,0.034418132,-0.17190075,0.63139933,0.0052000666
608300286,608178732,0,-10.449171,0.0352127,-0.04495907,0.6333555,0.00035460474
608377306,608259770,0,-10.456627,0.03443397,-0.1288557,0.6316811,0.0029205652
608505634,608380730,0,-10.463383,0.034484286,-0.11660957,0.6318575,0.0023911498
608624653,608500118,0,-10.469631,0.034380484,-0.10817909,0.6316714,0.0020585097
608753050,608630270,0,-10.473935,0.03443703,-0.074394226,0.6318665,0.00097321905
608881470,608755810,0,-10.476628,0.034487665,-0.046500206,0.6320546,0.0003801129
609001805,608879846,0,-10.478082,0.034384158,-0.025161743,0.6318738,0.00011132908
609118675,608998718,0,-10.479507,0.034292057,-0.024756432,0.6317138,0.00010779862
609296146,609171510,0,-10.474997,0.035102617,0.07664585,0.6336797,0.0010300658
609493910,609376640,0,-10.472454,0.034251355,0.04072666,0.6318463,0.00029167798
609613893,609490738,0,-10.469512,0.034174506,0.05126095,0.63171023,0.0004621818
609742660,609621740,0,-10.464984,0.03425541,0.07874489,0.6320455,0.0010900687
609869238,609749030,0,-10.461256,0.034327783,0.06471348,0.6322779,0.0007359342
609987861,609870776,0,-10.45799,0.03424356,0.056830406,0.6321256,0.0005676957
610107976,609987756,0,-10.455256,0.034168556,0.047657013,0.6319867,0.0003993036
610284194,610167178,0,-10.448953,0.03499479,0.10750198,0.6340009,0.0020253523
610373707,610248038,0,-10.442239,0.03439228,0.11638737,0.6326746,0.002378969
610493876,610371732,0,-10.437294,0.034301873,0.08593273,0.63249797,0.0012972258
610600485,610480532,0,-10.432004,0.034072213,0.092508316,0.63195467,0.0015046417
610729176,610611892,0,-10.42877,0.03416531,0.05641365,0.6321711,0.0005593598
610858581,610738522,0,-10.425659,0.034248307,0.054136276,0.6323492,0.0005149645
610976135,610858980,0,-10.422909,0.034173235,0.047966003,0.6321316,0.0004044055
611104952,610979924,0,-10.4188595,0.03425537,0.070459366,0.63236403,0.0008723038
611274334,611148748,0,-10.41361,0.034923363,0.08968544,0.63381577,0.0014100624
611361580,611244932,0,-10.410112,0.034328327,0.06072712,0.6324455,0.00064788776
611500057,611374518,0,-10.405421,0.03454165,0.080963135,0.6327752,0.0011510195
611609022,611489224,0,-10.40012,0.034285236,0.09212971,0.63218397,0.0014918096
611746443,611623718,0,-10.394419,0.034502953,0.09847069,0.6325961,0.0017031188
611875858,611749162,0,-10.388456,0.034547858,0.10285473,0.63261384,0.0018580926
611995531,611873730,0,-10.383258,0.03443876,0.08991909,0.63227326,0.0014208771
612112359,611987848,0,-10.37812,0.034341197,0.08909321,0.631955,0.0013955985
612290308,612170338,0,-10.370246,0.035145905,0.13360596,0.63364637,0.0031301286
612369622,612250228,0,-10.3643675,0.03437566,0.10181618,0.63190305,0.0018228067
612497869,612372268,0,-10.358722,0.03443307,0.09762859,0.6319481,0.0016758307
612607195,612488738,0,-10.3528595,0.034186233,0.10202885,0.6313032,0.0018321688
612746378,612621444,0,-10.346942,0.034412537,0.10235977,0.6317388,0.0018428017
612873151,612751258,0,-10.339589,0.034465183,0.12698078,0.6317994,0.0028356607
612992408,612871390,0,-10.332266,0.034363106,0.12681675,0.63151497,0.0028296132
613110691,612991332,0,-10.322775,0.034272235,0.16476631,0.6313444,0.0047778008
613288210,613169780,0,-10.309771,0.035083205,0.22085476,0.63310957,0.008560362
613368355,613246770,0,-10.2991085,0.034318626,0.18485641,0.63142955,0.0060131443
613497661,613372040,0,-10.285697,0.034381304,0.23212719,0.63155127,0.0094798375
613614856,613491746,0,-10.273221,0.03428827,0.21646976,0.6313241,0.008247068
613742777,613623720,0,-10.258496,0.034354188,0.25503254,0.63147074,0.011444463
613861831,613736742,0,-10.246281,0.034264088,0.21209049,0.63126546,0.007917496
613989713,613864860,0,-10.231355,0.034332685,0.2586689,0.6314354,0.011773809
614109172,613984568,0,-10.216593,0.034245007,0.25644207,0.63124967,0.01157537
614268361,614147730,0,-10.198995,0.034762267,0.30151367,0.6325076,0.01597003
614365738,614241724,0,-10.1835375,0.03433054,0.26794052,0.63153946,0.012630886
614493782,614373664,0,-10.168801,0.03439243,0.25503445,0.63172704,0.011439991
614622744,614500118,0,-10.152973,0.034447778,0.27354717,0.63190925,0.013157315
614740786,614620732,0,-10.13701,0.03434871,0.27668667,0.63181466,0.013463075
614870863,614749774,0,-10.122011,0.034409467,0.25956345,0.63201547,0.011844503
614989523,614868724,0,-10.105374,0.03431493,0.2886896,0.6318461,0.014655767
615116481,614999888,0,-10.09035,0.03437974,0.26026726,0.63206005,0.011907984
615285284,615166748,0,-10.070892,0.035032585,0.331275,0.6336489,0.01924359
615363841,615238956,0,-10.054872,0.034275655,0.27838707,0.63197595,0.013625582
615481914,615365052,0,-10.039446,0.034196474,0.26865673,0.63183385,0.012692585
615612734,615486708,0,-10.023002,0.034274988,0.28579998,0.6320745,0.014358652
615740779,615615586,0,-10.007391,0.03434521,0.27083397,0.63230205,0.012889592
615857436,615738748,0,-9.9924555,0.034259066,0.25974464,0.6321467,0.0118585825
615985948,615866960,0,-9.97757,0.03433137,0.25839138,0.6323773,0.01173106
616115088,615997474,0,-9.959491,0.03439607,0.3133049,0.6325974,0.01724108
616292597,616167624,0,-9.94026,0.035197806,0.32632256,0.6346501,0.018643064
616373018,616247016,0,-9.921822,0.03442453,0.31937027,0.63278985,0.017909644
616489871,616366994,0,-9.902304,0.03433091,0.33895493,0.63264596,0.020178117
616618807,616496950,0,-9.881703,0.03439625,0.3571186,0.632773,0.022394149
616747593,616622564,0,-9.859975,0.034454368,0.37605,0.63286877,0.024827614
616865375,616747432,0,-9.837179,0.034357086,0.3955183,0.63257897,0.027477419
616983977,616862720,0,-9.813587,0.03427007,0.41025734,0.6322972,0.029576648
617123883,616999238,0,-9.788227,0.03448999,0.43832874,0.632729,0.033739578
617290423,617173972,0,-9.761016,0.035131346,0.46221733,0.6340758,0.037437666
617369675,617249770,0,-9.735026,0.03436413,0.45062447,0.6323053,0.035682905
617488023,617364270,0,-9.7091675,0.034275327,0.44936085,0.63199395,0.03550055
